<?xml version="1.0"?>
<opencv_storage>
<cascade>
  <stageType>BOOST</stageType>
  <featureType>HAAR</featureType>
  <height>24</height>
  <width>24</width>
  <stageParams>
    <boostType>GAB</boostType>
    <minHitRate>9.9500000476837158e-01</minHitRate>
    <maxFalseAlarm>5.0000000000000000e-01</maxFalseAlarm>
    <weightTrimRate>9.4999999999999996e-01</weightTrimRate>
    <maxDepth>1</maxDepth>
    <maxWeakCount>100</maxWeakCount></stageParams>
  <featureParams>
    <maxCatCount>0</maxCatCount>
    <featSize>1</featSize>
    <mode>BASIC</mode></featureParams>
  <stageNum>11</stageNum>
  <stages>
    <!-- stage 0 -->
    <_>
      <maxWeakCount>2</maxWeakCount>
      <stageThreshold>-2.0139116048812866e-01</stageThreshold>
      <weakClassifiers>
        <_>
          <internalNodes>
            0 -1 19 6.5379112958908081e-02</internalNodes>
          <leafValues>
            -9.7212183475494385e-01 9.1274839639663696e-01</leafValues></_>
        <_>
          <internalNodes>
            0 -1 17 -9.3734867870807648e-02</internalNodes>
          <leafValues>
            7.7073067426681519e-01 -9.0075361728668213e-01</leafValues></_></weakClassifiers></_>
    <!-- stage 1 -->
    <_>
      <maxWeakCount>3</maxWeakCount>
      <stageThreshold>-1.0522650480270386e+00</stageThreshold>
      <weakClassifiers>
        <_>
          <internalNodes>
            0 -1 11 -6.0275495052337646e-02</internalNodes>
          <leafValues>
            7.5580865144729614e-01 -9.1911357641220093e-01</leafValues></_>
        <_>
          <internalNodes>
            0 -1 33 -1.8226437270641327e-02</internalNodes>
          <leafValues>
            8.8251239061355591e-01 -7.5890499353408813e-01</leafValues></_>
        <_>
          <internalNodes>
            0 -1 18 3.2672710716724396e-02</internalNodes>
          <leafValues>
            -8.5989707708358765e-01 6.2575358152389526e-01</leafValues></_></weakClassifiers></_>
    <!-- stage 2 -->
    <_>
      <maxWeakCount>3</maxWeakCount>
      <stageThreshold>-9.8101443052291870e-01</stageThreshold>
      <weakClassifiers>
        <_>
          <internalNodes>
            0 -1 1 1.5726890414953232e-02</internalNodes>
          <leafValues>
            -6.8235814571380615e-01 8.9808917045593262e-01</leafValues></_>
        <_>
          <internalNodes>
            0 -1 28 4.4758245348930359e-02</internalNodes>
          <leafValues>
            -7.8513628244400024e-01 7.0196765661239624e-01</leafValues></_>
        <_>
          <internalNodes>
            0 -1 31 2.5956884201150388e-05</internalNodes>
          <leafValues>
            4.8647993803024292e-01 -8.7737154960632324e-01</leafValues></_></weakClassifiers></_>
    <!-- stage 3 -->
    <_>
      <maxWeakCount>4</maxWeakCount>
      <stageThreshold>-1.1123675107955933e+00</stageThreshold>
      <weakClassifiers>
        <_>
          <internalNodes>
            0 -1 3 1.2082273140549660e-02</internalNodes>
          <leafValues>
            -5.9552425146102905e-01 9.0548205375671387e-01</leafValues></_>
        <_>
          <internalNodes>
            0 -1 30 -4.0003694593906403e-02</internalNodes>
          <leafValues>
            6.3747811317443848e-01 -7.6378053426742554e-01</leafValues></_>
        <_>
          <internalNodes>
            0 -1 10 -1.7924651503562927e-02</internalNodes>
          <leafValues>
            7.6909434795379639e-01 -5.2428519725799561e-01</leafValues></_>
        <_>
          <internalNodes>
            0 -1 32 6.8049672991037369e-03</internalNodes>
          <leafValues>
            -4.9696281552314758e-01 7.7122247219085693e-01</leafValues></_></weakClassifiers></_>
    <!-- stage 4 -->
    <_>
      <maxWeakCount>4</maxWeakCount>
      <stageThreshold>-6.3260310888290405e-01</stageThreshold>
      <weakClassifiers>
        <_>
          <internalNodes>
            0 -1 2 1.9201830029487610e-02</internalNodes>
          <leafValues>
            -7.0605468750000000e-01 7.4077868461608887e-01</leafValues></_>
        <_>
          <internalNodes>
            0 -1 26 -3.9916131645441055e-03</internalNodes>
          <leafValues>
            5.7096421718597412e-01 -6.4219415187835693e-01</leafValues></_>
        <_>
          <internalNodes>
            0 -1 7 4.1757691651582718e-03</internalNodes>
          <leafValues>
            -8.1124258041381836e-01 4.4835686683654785e-01</leafValues></_>
        <_>
          <internalNodes>
            0 -1 22 1.2353787496977020e-05</internalNodes>
          <leafValues>
            3.1372997164726257e-01 -9.7667777538299561e-01</leafValues></_></weakClassifiers></_>
    <!-- stage 5 -->
    <_>
      <maxWeakCount>2</maxWeakCount>
      <stageThreshold>-2.6534557342529297e-01</stageThreshold>
      <weakClassifiers>
        <_>
          <internalNodes>
            0 -1 22 -1.2594691725098528e-05</internalNodes>
          <leafValues>
            -9.5841717720031738e-01 5.6954962015151978e-01</leafValues></_>
        <_>
          <internalNodes>
            0 -1 33 -2.4299681186676025e-02</internalNodes>
          <leafValues>
            6.9307160377502441e-01 -7.0970273017883301e-01</leafValues></_></weakClassifiers></_>
    <!-- stage 6 -->
    <_>
      <maxWeakCount>4</maxWeakCount>
      <stageThreshold>-6.2850141525268555e-01</stageThreshold>
      <weakClassifiers>
        <_>
          <internalNodes>
            0 -1 8 -2.3426545783877373e-02</internalNodes>
          <leafValues>
            8.1723237037658691e-01 -5.0729334354400635e-01</leafValues></_>
        <_>
          <internalNodes>
            0 -1 23 1.3415452485787682e-05</internalNodes>
          <leafValues>
            4.4435089826583862e-01 -9.2805290222167969e-01</leafValues></_>
        <_>
          <internalNodes>
            0 -1 15 1.8139329552650452e-01</internalNodes>
          <leafValues>
            -7.0192515850067139e-01 4.4614541530609131e-01</leafValues></_>
        <_>
          <internalNodes>
            0 -1 12 -4.9669608473777771e-02</internalNodes>
          <leafValues>
            3.6069947481155396e-01 -8.9539837837219238e-01</leafValues></_></weakClassifiers></_>
    <!-- stage 7 -->
    <_>
      <maxWeakCount>5</maxWeakCount>
      <stageThreshold>-9.7676581144332886e-01</stageThreshold>
      <weakClassifiers>
        <_>
          <internalNodes>
            0 -1 4 -1.3471378013491631e-02</internalNodes>
          <leafValues>
            7.4765259027481079e-01 -5.5487805604934692e-01</leafValues></_>
        <_>
          <internalNodes>
            0 -1 27 2.1821836009621620e-02</internalNodes>
          <leafValues>
            -4.6398589015007019e-01 7.6216679811477661e-01</leafValues></_>
        <_>
          <internalNodes>
            0 -1 13 4.2466092854738235e-03</internalNodes>
          <leafValues>
            -6.4434522390365601e-01 4.9461245536804199e-01</leafValues></_>
        <_>
          <internalNodes>
            0 -1 21 2.3614600650034845e-05</internalNodes>
          <leafValues>
            3.4003013372421265e-01 -8.0067282915115356e-01</leafValues></_>
        <_>
          <internalNodes>
            0 -1 21 -1.1598827768466435e-05</internalNodes>
          <leafValues>
            -9.8015999794006348e-01 3.4815850853919983e-01</leafValues></_></weakClassifiers></_>
    <!-- stage 8 -->
    <_>
      <maxWeakCount>5</maxWeakCount>
      <stageThreshold>-7.5576961040496826e-01</stageThreshold>
      <weakClassifiers>
        <_>
          <internalNodes>
            0 -1 0 2.9534891247749329e-02</internalNodes>
          <leafValues>
            -5.4345917701721191e-01 7.1893149614334106e-01</leafValues></_>
        <_>
          <internalNodes>
            0 -1 29 1.2813347391784191e-02</internalNodes>
          <leafValues>
            -7.7935642004013062e-01 4.5063760876655579e-01</leafValues></_>
        <_>
          <internalNodes>
            0 -1 25 8.5943425074219704e-03</internalNodes>
          <leafValues>
            -4.6174502372741699e-01 7.6471984386444092e-01</leafValues></_>
        <_>
          <internalNodes>
            0 -1 21 9.5225050245062448e-06</internalNodes>
          <leafValues>
            4.7193452715873718e-01 -6.6928464174270630e-01</leafValues></_>
        <_>
          <internalNodes>
            0 -1 9 4.5153528451919556e-02</internalNodes>
          <leafValues>
            -6.6960835456848145e-01 4.8061302304267883e-01</leafValues></_></weakClassifiers></_>
    <!-- stage 9 -->
    <_>
      <maxWeakCount>5</maxWeakCount>
      <stageThreshold>-4.5340532064437866e-01</stageThreshold>
      <weakClassifiers>
        <_>
          <internalNodes>
            0 -1 14 -1.3780778646469116e-01</internalNodes>
          <leafValues>
            5.2245646715164185e-01 -6.2706267833709717e-01</leafValues></_>
        <_>
          <internalNodes>
            0 -1 35 -1.4129186980426311e-02</internalNodes>
          <leafValues>
            8.1229138374328613e-01 -3.8984039425849915e-01</leafValues></_>
        <_>
          <internalNodes>
            0 -1 16 -5.1623128354549408e-02</internalNodes>
          <leafValues>
            6.9516474008560181e-01 -4.9441379308700562e-01</leafValues></_>
        <_>
          <internalNodes>
            0 -1 20 -2.6708017685450613e-05</internalNodes>
          <leafValues>
            -8.5689562559127808e-01 3.4022960066795349e-01</leafValues></_>
        <_>
          <internalNodes>
            0 -1 6 4.0613072924315929e-03</internalNodes>
          <leafValues>
            -4.2429050803184509e-01 7.5942027568817139e-01</leafValues></_></weakClassifiers></_>
    <!-- stage 10 -->
    <_>
      <maxWeakCount>4</maxWeakCount>
      <stageThreshold>-9.4263678789138794e-01</stageThreshold>
      <weakClassifiers>
        <_>
          <internalNodes>
            0 -1 34 8.0672055482864380e-03</internalNodes>
          <leafValues>
            -4.7510549426078796e-01 6.9079756736755371e-01</leafValues></_>
        <_>
          <internalNodes>
            0 -1 20 1.2667785085795913e-05</internalNodes>
          <leafValues>
            3.7641981244087219e-01 -8.7757211923599243e-01</leafValues></_>
        <_>
          <internalNodes>
            0 -1 24 5.1067784428596497e-02</internalNodes>
          <leafValues>
            -3.4495708346366882e-01 9.0294271707534790e-01</leafValues></_>
        <_>
          <internalNodes>
            0 -1 5 1.2331731617450714e-02</internalNodes>
          <leafValues>
            -4.9290183186531067e-01 6.0564553737640381e-01</leafValues></_></weakClassifiers></_></stages>
  <features>
    <_>
      <rects>
        <_>
          1 1 4 14 -1.</_>
        <_>
          1 1 2 7 2.</_>
        <_>
          3 8 2 7 2.</_></rects>
      <tilted>0</tilted></_>
    <_>
      <rects>
        <_>
          1 9 4 6 -1.</_>
        <_>
          3 9 2 6 2.</_></rects>
      <tilted>0</tilted></_>
    <_>
      <rects>
        <_>
          2 6 4 11 -1.</_>
        <_>
          4 6 2 11 2.</_></rects>
      <tilted>0</tilted></_>
    <_>
      <rects>
        <_>
          2 8 2 8 -1.</_>
        <_>
          3 8 1 8 2.</_></rects>
      <tilted>0</tilted></_>
    <_>
      <rects>
        <_>
          2 8 2 16 -1.</_>
        <_>
          2 8 1 8 2.</_>
        <_>
          3 16 1 8 2.</_></rects>
      <tilted>0</tilted></_>
    <_>
      <rects>
        <_>
          2 9 2 6 -1.</_>
        <_>
          3 9 1 6 2.</_></rects>
      <tilted>0</tilted></_>
    <_>
      <rects>
        <_>
          2 10 3 1 -1.</_>
        <_>
          3 10 1 1 3.</_></rects>
      <tilted>0</tilted></_>
    <_>
      <rects>
        <_>
          2 15 8 1 -1.</_>
        <_>
          6 15 4 1 2.</_></rects>
      <tilted>0</tilted></_>
    <_>
      <rects>
        <_>
          3 5 6 6 -1.</_>
        <_>
          3 5 3 3 2.</_>
        <_>
          6 8 3 3 2.</_></rects>
      <tilted>0</tilted></_>
    <_>
      <rects>
        <_>
          3 8 8 12 -1.</_>
        <_>
          3 8 4 6 2.</_>
        <_>
          7 14 4 6 2.</_></rects>
      <tilted>0</tilted></_>
    <_>
      <rects>
        <_>
          4 4 10 4 -1.</_>
        <_>
          4 4 5 2 2.</_>
        <_>
          9 6 5 2 2.</_></rects>
      <tilted>0</tilted></_>
    <_>
      <rects>
        <_>
          5 7 15 8 -1.</_>
        <_>
          10 7 5 8 3.</_></rects>
      <tilted>0</tilted></_>
    <_>
      <rects>
        <_>
          5 8 15 7 -1.</_>
        <_>
          10 8 5 7 3.</_></rects>
      <tilted>0</tilted></_>
    <_>
      <rects>
        <_>
          5 14 9 1 -1.</_>
        <_>
          8 14 3 1 3.</_></rects>
      <tilted>0</tilted></_>
    <_>
      <rects>
        <_>
          7 4 10 12 -1.</_>
        <_>
          7 8 10 4 3.</_></rects>
      <tilted>0</tilted></_>
    <_>
      <rects>
        <_>
          7 8 12 15 -1.</_>
        <_>
          7 13 12 5 3.</_></rects>
      <tilted>0</tilted></_>
    <_>
      <rects>
        <_>
          7 17 10 6 -1.</_>
        <_>
          7 20 10 3 2.</_></rects>
      <tilted>0</tilted></_>
    <_>
      <rects>
        <_>
          8 4 9 12 -1.</_>
        <_>
          8 8 9 4 3.</_></rects>
      <tilted>0</tilted></_>
    <_>
      <rects>
        <_>
          8 8 2 15 -1.</_>
        <_>
          8 13 2 5 3.</_></rects>
      <tilted>0</tilted></_>
    <_>
      <rects>
        <_>
          8 9 9 8 -1.</_>
        <_>
          8 13 9 4 2.</_></rects>
      <tilted>0</tilted></_>
    <_>
      <rects>
        <_>
          9 9 2 1 -1.</_>
        <_>
          10 9 1 1 2.</_></rects>
      <tilted>0</tilted></_>
    <_>
      <rects>
        <_>
          9 13 1 2 -1.</_>
        <_>
          9 14 1 1 2.</_></rects>
      <tilted>0</tilted></_>
    <_>
      <rects>
        <_>
          9 14 1 2 -1.</_>
        <_>
          9 15 1 1 2.</_></rects>
      <tilted>0</tilted></_>
    <_>
      <rects>
        <_>
          9 14 2 2 -1.</_>
        <_>
          9 15 2 1 2.</_></rects>
      <tilted>0</tilted></_>
    <_>
      <rects>
        <_>
          10 1 5 6 -1.</_>
        <_>
          10 3 5 2 3.</_></rects>
      <tilted>0</tilted></_>
    <_>
      <rects>
        <_>
          10 3 4 3 -1.</_>
        <_>
          10 4 4 1 3.</_></rects>
      <tilted>0</tilted></_>
    <_>
      <rects>
        <_>
          10 12 6 1 -1.</_>
        <_>
          12 12 2 1 3.</_></rects>
      <tilted>0</tilted></_>
    <_>
      <rects>
        <_>
          11 4 10 4 -1.</_>
        <_>
          11 4 5 2 2.</_>
        <_>
          16 6 5 2 2.</_></rects>
      <tilted>0</tilted></_>
    <_>
      <rects>
        <_>
          11 5 12 13 -1.</_>
        <_>
          15 5 4 13 3.</_></rects>
      <tilted>0</tilted></_>
    <_>
      <rects>
        <_>
          12 13 9 6 -1.</_>
        <_>
          15 13 3 6 3.</_></rects>
      <tilted>0</tilted></_>
    <_>
      <rects>
        <_>
          13 8 8 12 -1.</_>
        <_>
          13 8 4 6 2.</_>
        <_>
          17 14 4 6 2.</_></rects>
      <tilted>0</tilted></_>
    <_>
      <rects>
        <_>
          13 11 1 2 -1.</_>
        <_>
          13 12 1 1 2.</_></rects>
      <tilted>0</tilted></_>
    <_>
      <rects>
        <_>
          19 8 3 7 -1.</_>
        <_>
          20 8 1 7 3.</_></rects>
      <tilted>0</tilted></_>
    <_>
      <rects>
        <_>
          19 8 4 8 -1.</_>
        <_>
          21 8 2 8 2.</_></rects>
      <tilted>0</tilted></_>
    <_>
      <rects>
        <_>
          20 5 1 8 -1.</_>
        <_>
          20 9 1 4 2.</_></rects>
      <tilted>0</tilted></_>
    <_>
      <rects>
        <_>
          21 9 3 6 -1.</_>
        <_>
          22 9 1 6 3.</_></rects>
      <tilted>0</tilted></_></features></cascade>
</opencv_storage>
