<?xml version="1.0"?>
<opencv_storage>
<cascade>
  <stageType>BOOST</stageType>
  <featureType>HOG</featureType>
  <height>24</height>
  <width>24</width>
  <stageParams>
    <boostType>GAB</boostType>
    <minHitRate>9.9500000476837158e-01</minHitRate>
    <maxFalseAlarm>5.0000000000000000e-01</maxFalseAlarm>
    <weightTrimRate>9.4999999999999996e-01</weightTrimRate>
    <maxDepth>1</maxDepth>
    <maxWeakCount>100</maxWeakCount></stageParams>
  <featureParams>
    <maxCatCount>0</maxCatCount>
    <featSize>36</featSize></featureParams>
  <stageNum>8</stageNum>
  <stages>
    <!-- stage 0 -->
    <_>
      <maxWeakCount>1</maxWeakCount>
      <stageThreshold>9.8905473947525024e-01</stageThreshold>
      <weakClassifiers>
        <_>
          <internalNodes>
            0 -1 3 6.6915650677401572e-05</internalNodes>
          <leafValues>
            9.8905473947525024e-01 -9.9899494647979736e-01</leafValues></_></weakClassifiers></_>
    <!-- stage 1 -->
    <_>
      <maxWeakCount>4</maxWeakCount>
      <stageThreshold>-5.6833899021148682e-01</stageThreshold>
      <weakClassifiers>
        <_>
          <internalNodes>
            0 -1 0 2.5140460580587387e-02</internalNodes>
          <leafValues>
            -6.7412453889846802e-01 7.1296298503875732e-01</leafValues></_>
        <_>
          <internalNodes>
            0 -1 5 2.9907345378887840e-05</internalNodes>
          <leafValues>
            4.1939258575439453e-01 -9.8390775918960571e-01</leafValues></_>
        <_>
          <internalNodes>
            0 -1 2 3.0928485095500946e-02</internalNodes>
          <leafValues>
            -8.4898251295089722e-01 4.4605329632759094e-01</leafValues></_>
        <_>
          <internalNodes>
            0 -1 30 1.6775034368038177e-02</internalNodes>
          <leafValues>
            -7.0608919858932495e-01 5.3537541627883911e-01</leafValues></_></weakClassifiers></_>
    <!-- stage 2 -->
    <_>
      <maxWeakCount>5</maxWeakCount>
      <stageThreshold>-1.1117984056472778e+00</stageThreshold>
      <weakClassifiers>
        <_>
          <internalNodes>
            0 -1 28 3.7410162389278412e-02</internalNodes>
          <leafValues>
            -6.6226625442504883e-01 5.5178737640380859e-01</leafValues></_>
        <_>
          <internalNodes>
            0 -1 23 3.8508631405420601e-04</internalNodes>
          <leafValues>
            -7.5304943323135376e-01 3.9984154701232910e-01</leafValues></_>
        <_>
          <internalNodes>
            0 -1 18 3.4674469497986138e-04</internalNodes>
          <leafValues>
            5.2157318592071533e-01 -8.0348980426788330e-01</leafValues></_>
        <_>
          <internalNodes>
            0 -1 6 4.4377379119396210e-02</internalNodes>
          <leafValues>
            -4.7601857781410217e-01 5.9450811147689819e-01</leafValues></_>
        <_>
          <internalNodes>
            0 -1 1 1.3349219807423651e-04</internalNodes>
          <leafValues>
            -7.3547339439392090e-01 3.6897206306457520e-01</leafValues></_></weakClassifiers></_>
    <!-- stage 3 -->
    <_>
      <maxWeakCount>7</maxWeakCount>
      <stageThreshold>-9.6540510654449463e-01</stageThreshold>
      <weakClassifiers>
        <_>
          <internalNodes>
            0 -1 24 2.0873973146080971e-02</internalNodes>
          <leafValues>
            -5.9650146961212158e-01 4.4770240783691406e-01</leafValues></_>
        <_>
          <internalNodes>
            0 -1 14 1.2295332271605730e-04</internalNodes>
          <leafValues>
            3.6174237728118896e-01 -7.1534228324890137e-01</leafValues></_>
        <_>
          <internalNodes>
            0 -1 9 3.1772546935826540e-04</internalNodes>
          <leafValues>
            -7.7786880731582642e-01 3.8977101445198059e-01</leafValues></_>
        <_>
          <internalNodes>
            0 -1 8 5.9450689703226089e-02</internalNodes>
          <leafValues>
            -5.7924461364746094e-01 3.6786752939224243e-01</leafValues></_>
        <_>
          <internalNodes>
            0 -1 21 4.6771787106990814e-02</internalNodes>
          <leafValues>
            -3.9174070954322815e-01 6.6485494375228882e-01</leafValues></_>
        <_>
          <internalNodes>
            0 -1 12 7.2693541646003723e-02</internalNodes>
          <leafValues>
            -5.1714545488357544e-01 4.6493363380432129e-01</leafValues></_>
        <_>
          <internalNodes>
            0 -1 27 1.5167991816997528e-01</internalNodes>
          <leafValues>
            -3.6457818746566772e-01 5.8824139833450317e-01</leafValues></_></weakClassifiers></_>
    <!-- stage 4 -->
    <_>
      <maxWeakCount>6</maxWeakCount>
      <stageThreshold>-8.3444833755493164e-01</stageThreshold>
      <weakClassifiers>
        <_>
          <internalNodes>
            0 -1 31 2.3377992329187691e-04</internalNodes>
          <leafValues>
            -7.2575759887695312e-01 3.5746267437934875e-01</leafValues></_>
        <_>
          <internalNodes>
            0 -1 7 5.8579793403623626e-05</internalNodes>
          <leafValues>
            3.1810623407363892e-01 -7.7057379484176636e-01</leafValues></_>
        <_>
          <internalNodes>
            0 -1 2 1.5602672472596169e-02</internalNodes>
          <leafValues>
            -7.7207684516906738e-01 2.4470706284046173e-01</leafValues></_>
        <_>
          <internalNodes>
            0 -1 19 7.6281815767288208e-02</internalNodes>
          <leafValues>
            -4.9249088764190674e-01 4.3372997641563416e-01</leafValues></_>
        <_>
          <internalNodes>
            0 -1 11 7.0280745625495911e-02</internalNodes>
          <leafValues>
            -3.4139892458915710e-01 5.5604201555252075e-01</leafValues></_>
        <_>
          <internalNodes>
            0 -1 23 4.3899490265175700e-04</internalNodes>
          <leafValues>
            -6.7881649732589722e-01 3.2484489679336548e-01</leafValues></_></weakClassifiers></_>
    <!-- stage 5 -->
    <_>
      <maxWeakCount>7</maxWeakCount>
      <stageThreshold>-7.7475631237030029e-01</stageThreshold>
      <weakClassifiers>
        <_>
          <internalNodes>
            0 -1 26 8.3473576523829252e-05</internalNodes>
          <leafValues>
            3.5143175721168518e-01 -7.2082382440567017e-01</leafValues></_>
        <_>
          <internalNodes>
            0 -1 25 1.6137678176164627e-02</internalNodes>
          <leafValues>
            -7.0251727104187012e-01 2.0869176089763641e-01</leafValues></_>
        <_>
          <internalNodes>
            0 -1 17 1.0214956273557618e-04</internalNodes>
          <leafValues>
            3.5016721487045288e-01 -5.6228369474411011e-01</leafValues></_>
        <_>
          <internalNodes>
            0 -1 13 4.0292043238878250e-02</internalNodes>
          <leafValues>
            -4.2650002241134644e-01 4.9008184671401978e-01</leafValues></_>
        <_>
          <internalNodes>
            0 -1 1 1.3349219807423651e-04</internalNodes>
          <leafValues>
            -7.6167207956314087e-01 2.7609235048294067e-01</leafValues></_>
        <_>
          <internalNodes>
            0 -1 4 9.7084470326080918e-05</internalNodes>
          <leafValues>
            1.4553014934062958e-01 -1.</leafValues></_>
        <_>
          <internalNodes>
            0 -1 25 5.5376075208187103e-02</internalNodes>
          <leafValues>
            -5.8345991373062134e-01 3.0453693866729736e-01</leafValues></_></weakClassifiers></_>
    <!-- stage 6 -->
    <_>
      <maxWeakCount>9</maxWeakCount>
      <stageThreshold>-1.0511884689331055e+00</stageThreshold>
      <weakClassifiers>
        <_>
          <internalNodes>
            0 -1 9 4.3004500912502408e-04</internalNodes>
          <leafValues>
            -6.5053761005401611e-01 2.5173369050025940e-01</leafValues></_>
        <_>
          <internalNodes>
            0 -1 24 1.8094789236783981e-02</internalNodes>
          <leafValues>
            -5.6969708204269409e-01 2.5711262226104736e-01</leafValues></_>
        <_>
          <internalNodes>
            0 -1 14 8.3220438682474196e-05</internalNodes>
          <leafValues>
            2.7597475051879883e-01 -6.6814947128295898e-01</leafValues></_>
        <_>
          <internalNodes>
            0 -1 22 3.7396952975541353e-03</internalNodes>
          <leafValues>
            -4.1339689493179321e-01 4.3694639205932617e-01</leafValues></_>
        <_>
          <internalNodes>
            0 -1 8 1.3842621818184853e-02</internalNodes>
          <leafValues>
            -8.2440096139907837e-01 2.4512752890586853e-01</leafValues></_>
        <_>
          <internalNodes>
            0 -1 21 6.1458960175514221e-02</internalNodes>
          <leafValues>
            -4.1229429841041565e-01 4.4039773941040039e-01</leafValues></_>
        <_>
          <internalNodes>
            0 -1 20 5.7445853948593140e-02</internalNodes>
          <leafValues>
            -3.0061399936676025e-01 4.7128361463546753e-01</leafValues></_>
        <_>
          <internalNodes>
            0 -1 25 1.3038587570190430e-01</internalNodes>
          <leafValues>
            -3.5538825392723083e-01 4.4663685560226440e-01</leafValues></_>
        <_>
          <internalNodes>
            0 -1 29 1.4017520472407341e-02</internalNodes>
          <leafValues>
            -4.0243244171142578e-01 3.9582353830337524e-01</leafValues></_></weakClassifiers></_>
    <!-- stage 7 -->
    <_>
      <maxWeakCount>11</maxWeakCount>
      <stageThreshold>-1.2615135908126831e+00</stageThreshold>
      <weakClassifiers>
        <_>
          <internalNodes>
            0 -1 15 4.2444571590749547e-05</internalNodes>
          <leafValues>
            3.8128250837326050e-01 -5.2009457349777222e-01</leafValues></_>
        <_>
          <internalNodes>
            0 -1 11 6.2390744686126709e-02</internalNodes>
          <leafValues>
            -3.4280335903167725e-01 4.7427198290824890e-01</leafValues></_>
        <_>
          <internalNodes>
            0 -1 23 1.9699860422406346e-04</internalNodes>
          <leafValues>
            -6.0798996686935425e-01 2.3390969634056091e-01</leafValues></_>
        <_>
          <internalNodes>
            0 -1 16 3.6760033253813162e-05</internalNodes>
          <leafValues>
            2.5659695267677307e-01 -7.0470434427261353e-01</leafValues></_>
        <_>
          <internalNodes>
            0 -1 28 9.9103171378374100e-03</internalNodes>
          <leafValues>
            -7.8334623575210571e-01 1.5217344462871552e-01</leafValues></_>
        <_>
          <internalNodes>
            0 -1 31 2.9855861794203520e-04</internalNodes>
          <leafValues>
            -6.5868782997131348e-01 1.7726336419582367e-01</leafValues></_>
        <_>
          <internalNodes>
            0 -1 20 3.6630481481552124e-02</internalNodes>
          <leafValues>
            -3.7999108433723450e-01 4.0492555499076843e-01</leafValues></_>
        <_>
          <internalNodes>
            0 -1 7 3.8274167309282348e-05</internalNodes>
          <leafValues>
            1.8301539123058319e-01 -6.0575443506240845e-01</leafValues></_>
        <_>
          <internalNodes>
            0 -1 1 2.6595688541419804e-04</internalNodes>
          <leafValues>
            -6.6619038581848145e-01 1.7603720724582672e-01</leafValues></_>
        <_>
          <internalNodes>
            0 -1 2 2.6848176494240761e-02</internalNodes>
          <leafValues>
            -7.3004144430160522e-01 1.5413519740104675e-01</leafValues></_>
        <_>
          <internalNodes>
            0 -1 10 6.9358691573143005e-02</internalNodes>
          <leafValues>
            -4.0295386314392090e-01 3.5533323884010315e-01</leafValues></_></weakClassifiers></_></stages>
  <features>
    <_>
      <rect>
        0 0 8 8 1</rect></_>
    <_>
      <rect>
        0 0 8 8 3</rect></_>
    <_>
      <rect>
        0 0 8 8 26</rect></_>
    <_>
      <rect>
        0 0 8 8 28</rect></_>
    <_>
      <rect>
        0 0 8 8 32</rect></_>
    <_>
      <rect>
        0 0 8 8 35</rect></_>
    <_>
      <rect>
        0 4 8 8 24</rect></_>
    <_>
      <rect>
        0 4 8 8 35</rect></_>
    <_>
      <rect>
        0 8 8 8 8</rect></_>
    <_>
      <rect>
        0 8 8 8 21</rect></_>
    <_>
      <rect>
        0 8 8 8 31</rect></_>
    <_>
      <rect>
        4 0 8 8 1</rect></_>
    <_>
      <rect>
        4 0 8 8 4</rect></_>
    <_>
      <rect>
        4 0 8 8 15</rect></_>
    <_>
      <rect>
        4 0 8 8 22</rect></_>
    <_>
      <rect>
        4 0 8 8 26</rect></_>
    <_>
      <rect>
        4 0 8 8 31</rect></_>
    <_>
      <rect>
        4 0 8 8 35</rect></_>
    <_>
      <rect>
        4 8 8 8 13</rect></_>
    <_>
      <rect>
        4 8 8 8 22</rect></_>
    <_>
      <rect>
        4 8 8 8 24</rect></_>
    <_>
      <rect>
        4 8 8 8 28</rect></_>
    <_>
      <rect>
        8 0 8 8 3</rect></_>
    <_>
      <rect>
        8 0 8 8 12</rect></_>
    <_>
      <rect>
        8 0 8 8 15</rect></_>
    <_>
      <rect>
        8 0 8 8 35</rect></_>
    <_>
      <rect>
        8 4 8 8 8</rect></_>
    <_>
      <rect>
        8 4 8 8 35</rect></_>
    <_>
      <rect>
        8 8 8 8 17</rect></_>
    <_>
      <rect>
        8 8 8 8 21</rect></_>
    <_>
      <rect>
        8 8 8 8 28</rect></_>
    <_>
      <rect>
        8 8 8 8 30</rect></_></features></cascade>
</opencv_storage>
